digraph Tree {
node [shape=box, fontname="helvetica"] ;
edge [fontname="helvetica"] ;
0 [label="temps_nuageux <= 0.5\ngini = 0.459\nsamples = 14\nvalue = [5, 9]\nclass = oui"] ;
1 [label="humidite_normale <= 0.5\ngini = 0.5\nsamples = 10\nvalue = [5, 5]\nclass = non"] ;
0 -> 1 [labeldistance=2.5, labelangle=45, headlabel="True"] ;
2 [label="temps_ensoleile <= 0.5\ngini = 0.32\nsamples = 5\nvalue = [4, 1]\nclass = non"] ;
1 -> 2 ;
3 [label="vent_oui <= 0.5\ngini = 0.5\nsamples = 2\nvalue = [1, 1]\nclass = non"] ;
2 -> 3 ;
4 [label="gini = 0.0\nsamples = 1\nvalue = [0, 1]\nclass = oui"] ;
3 -> 4 ;
5 [label="gini = 0.0\nsamples = 1\nvalue = [1, 0]\nclass = non"] ;
3 -> 5 ;
6 [label="gini = 0.0\nsamples = 3\nvalue = [3, 0]\nclass = non"] ;
2 -> 6 ;
7 [label="vent_oui <= 0.5\ngini = 0.32\nsamples = 5\nvalue = [1, 4]\nclass = oui"] ;
1 -> 7 ;
8 [label="gini = 0.0\nsamples = 3\nvalue = [0, 3]\nclass = oui"] ;
7 -> 8 ;
9 [label="temps_ensoleile <= 0.5\ngini = 0.5\nsamples = 2\nvalue = [1, 1]\nclass = non"] ;
7 -> 9 ;
10 [label="gini = 0.0\nsamples = 1\nvalue = [1, 0]\nclass = non"] ;
9 -> 10 ;
11 [label="gini = 0.0\nsamples = 1\nvalue = [0, 1]\nclass = oui"] ;
9 -> 11 ;
12 [label="gini = 0.0\nsamples = 4\nvalue = [0, 4]\nclass = oui"] ;
0 -> 12 [labeldistance=2.5, labelangle=-45, headlabel="False"] ;
}